nep3 2 O Zr 
cutoff 5 3 47 10
n_max 12 6
basis_size 12 12
l_max 4 2 0
ANN 50 0
  2.0464219e-02
 -1.4926261e-01
 -9.4011948e-02
  2.0344914e-03
  1.1545742e-01
 -5.0749135e-01
  1.0937726e-01
  8.7458622e-01
 -2.0641096e-02
 -1.2858726e+00
 -3.5606723e-02
 -2.9963061e-01
 -1.0632799e-01
 -1.7670210e-02
  8.1218341e-03
 -1.4686504e-02
  2.2656897e-02
 -1.2595799e-02
 -3.0711431e-03
  1.6925894e-02
 -9.4173059e-02
 -1.0826671e-04
 -1.0211614e-03
  4.6106037e-03
  8.7357732e-03
 -3.3771258e-02
 -2.3532502e-02
  4.2242125e-02
  1.7675461e-02
 -1.6257634e-02
  1.6682260e-02
 -2.5568457e-02
 -4.8942208e-02
  3.4128614e-02
 -2.2992643e-02
  4.4616461e-03
  1.9421607e-02
  4.6716342e-04
 -2.5408184e-02
 -2.5256192e-02
 -1.2399347e-02
  3.2703403e-02
 -6.1489217e-02
 -8.9556389e-03
 -6.2239198e-03
 -8.4050950e-03
 -1.0120519e-02
  1.8981028e-02
  4.6997944e-01
  2.3351558e-02
  8.5487521e-01
  8.9668147e-03
  2.5471417e-02
 -4.0500733e-01
  7.0260033e-02
  4.8233652e-01
  6.3340592e-01
 -1.1404376e+00
  2.3174615e-01
  7.6266065e-02
 -4.1672930e-01
  3.1574361e-02
 -1.8653586e-03
 -2.4613915e-02
 -1.6277725e-02
 -3.6255129e-02
  3.5091661e-02
  1.1822146e-02
 -1.6650738e-02
  3.8410518e-02
  7.6543721e-03
  1.8191922e-02
  9.8500982e-02
 -3.2376878e-02
  1.7614633e-02
  7.1759790e-04
  9.5492229e-03
  2.5826577e-02
 -9.4194219e-02
 -8.6819259e-03
 -2.7898824e-02
  9.5710885e-03
 -1.6180173e-01
 -8.3902724e-02
 -1.5002823e-02
 -7.0983505e-01
  3.1557221e-02
 -2.7752649e-02
 -1.2466252e-02
  4.1706350e-02
  1.4094733e-02
 -5.3015137e-03
 -9.0255858e-03
 -1.1908130e-01
 -9.4947768e-03
  5.0483618e-02
 -2.6370425e-02
 -2.6770201e-01
  8.8743973e-01
 -5.6084442e-01
 -4.7897866e-01
  1.5499880e-02
 -3.9543790e-01
 -2.6708850e-01
  2.9370224e-01
 -4.9038872e-01
 -4.9539566e-01
  5.4430366e-01
 -5.7934058e-01
 -2.5463538e+00
 -8.9582586e-01
 -2.0821908e-02
 -1.2448909e+00
  1.7524813e+00
  2.1315632e+00
 -1.4900761e+00
  3.6465511e-01
 -5.6671399e-01
  1.4546269e+00
 -3.4309575e-01
  9.7713363e-01
 -2.8841820e+00
  5.2995298e-02
 -4.1832563e-01
  1.8426936e+00
  1.6191226e+00
 -2.1196005e+00
  4.6571992e-02
  1.9619399e-01
  2.1556631e-01
 -3.6475041e+00
 -7.5265783e-01
 -1.1454920e+00
  4.9442530e+00
 -3.7825909e-02
 -8.6164549e-03
  1.2017428e+00
  7.9718333e-01
 -3.7144017e-01
  5.4844081e-01
  4.9751544e-01
  4.4868430e-01
  5.1444089e-03
  1.3323277e-01
 -1.5049805e-01
  9.3561172e-01
  8.4164959e-01
  4.7329068e-01
  2.1337205e-01
 -7.7553517e-01
  4.7536224e-01
  2.9084597e+00
  1.1531694e+00
 -8.4706473e-01
 -2.8175259e-01
  1.9565628e+00
 -2.4275509e-01
  4.5093200e-03
  6.2699169e-02
  5.3012811e-02
 -1.4859052e-01
 -2.1213576e-02
 -3.2725858e-03
  1.4689642e-02
 -7.6280817e-02
 -3.3223689e-02
  8.6259916e-02
 -2.0657938e-02
 -8.4984250e-02
  1.3773290e-02
  2.4186792e-02
 -1.5953531e-02
  4.4542342e-02
 -1.2936610e-02
  1.9972038e-02
 -9.3453135e-03
 -3.0271251e-02
  6.7024045e-02
 -1.2378985e-02
  6.6350694e-05
  3.6919303e-02
 -1.0813433e-02
  7.6918960e-01
 -1.0359850e-02
 -3.2236807e-02
 -2.4587341e-02
 -2.6402581e-02
  1.1776874e-02
 -5.1820669e-02
 -4.4749234e-02
  1.5338654e-02
  2.4713872e-02
 -8.2113855e-03
  2.2023885e-01
 -4.6215482e-02
  4.8436128e-02
 -5.4275900e-01
 -1.4808361e-01
 -1.6747443e-01
  2.4463937e-02
  1.4589794e-04
  6.4938053e-02
 -6.9818425e-01
  1.2052663e-01
 -7.2695486e-02
  3.5550438e-02
  2.2469636e-02
 -3.5278127e-02
 -1.6296236e-02
  2.0366386e-03
 -1.1955127e-02
 -6.5234646e-02
  1.1405104e-01
  2.3875390e-03
  3.8777109e-02
  4.9843481e-03
  8.0579422e-02
  1.3074670e-02
  1.4315504e-02
 -3.9126456e-02
 -2.8488683e-02
 -7.3498487e-04
 -1.3606786e-02
 -2.6045721e-03
 -9.9647529e-02
 -2.0376010e-02
 -3.2390229e-02
 -1.4381820e-02
  6.2222704e-03
  2.0626995e-03
 -7.6602444e-02
 -2.2342991e-02
 -2.5967974e-02
  3.1314995e-03
 -1.3597908e-02
 -5.1581807e-02
  3.6961250e-02
 -5.3196810e-03
 -1.9880254e-02
  8.5359132e-03
 -3.4740889e-01
 -5.4295552e-01
 -4.2467814e-02
  1.6740917e-01
  3.3427414e-01
  6.8006404e-02
 -3.4111246e-01
  2.2319847e-01
  7.3638484e-02
  4.4372106e-01
  1.9687867e-01
  4.0215653e-01
  2.9432517e-02
 -1.3849922e-02
 -4.7633436e-02
  1.8696945e-02
 -1.3409717e-01
  3.6817792e-01
  1.3052371e-02
  2.2380301e-01
 -3.7537268e-01
  5.2522205e-02
  6.9435716e-02
 -5.6358330e-02
  6.3206755e-02
 -2.3036335e-02
  5.2327264e-02
  9.2568383e-02
 -2.6343116e-01
  3.5454150e-02
  3.7856031e-02
  9.3535632e-02
  1.0899823e-02
  1.3878004e-01
 -3.2924805e-02
  9.4532162e-02
 -7.4195969e-03
  8.6945377e-02
  1.1884730e-01
  5.6848653e-02
  2.1064758e+00
 -1.4451496e-02
 -7.2491862e-02
 -3.0043792e-02
 -3.0909278e-03
  7.7153295e-02
  1.6713893e-02
  1.5504427e-02
 -4.0314373e-02
  9.5194191e-01
 -1.0488335e+00
  4.8406255e-02
 -3.2045808e-02
  1.7815894e-02
 -9.4419539e-02
 -2.1644817e-01
 -6.6285282e-01
  2.6756278e-01
 -5.3242385e-01
 -3.3283714e-02
  5.3674144e-01
 -1.9519230e-02
  3.3359848e-02
  1.8296605e-02
 -1.5695881e-02
  2.9419649e-01
  1.8596113e-02
 -1.9672592e-01
  2.6354376e-02
 -7.3808637e-03
 -2.3979144e-02
  4.5426134e-03
  5.8499835e-03
 -1.3421602e-02
 -1.7381918e-02
 -6.1816308e-03
  9.8963886e-02
  1.4419238e-02
  1.5277168e-02
 -7.0527755e-03
 -3.2855000e-02
 -8.0713741e-03
  1.6602371e-03
 -3.5275351e-02
  1.8384471e-03
 -3.1028388e-02
 -2.1856192e-01
 -1.6698565e-01
 -1.6558018e-02
 -2.4326701e-02
 -1.3336989e-01
  3.1422310e-02
  4.2846195e-02
 -1.4808161e-02
 -2.6624175e-03
 -2.0971337e-02
 -9.0641432e-02
 -5.2211034e-01
  3.4878320e-01
 -3.3128470e-01
 -2.9815996e-01
 -1.2788841e-01
 -5.1100093e-01
 -3.1145948e-01
 -1.9765973e-01
 -1.1288250e-01
  3.8706440e-02
  3.2904571e-01
 -1.3442157e-01
  3.8140427e-02
  7.7277698e-02
  1.2671439e-01
  5.4705720e-02
 -2.8803155e-02
  5.0120372e-03
  1.3536776e-02
  8.1441291e-02
  2.6952732e-02
 -2.3495571e-01
  3.0636925e-01
  2.4605852e-01
 -1.7249450e-02
  4.6639204e-02
 -3.8540073e-02
  3.8680431e-01
  8.9826100e-02
  6.8861729e-01
  3.0410409e-01
 -6.7794146e-03
  1.6129792e-01
  3.3672035e-02
  1.5404577e-02
 -2.6296841e-02
  1.2919862e-03
 -4.9089871e-02
  7.2669266e-03
 -9.7623169e-03
  1.9479296e-03
  4.4001658e-03
 -9.2154033e-03
 -1.6037028e-02
  5.4344502e-03
  9.8506687e-04
  5.0150515e-03
 -1.7670743e-01
  6.9667727e-02
 -6.1450289e-03
  1.0815812e-02
 -9.7318012e-03
  1.0343425e-02
 -2.0035812e-01
 -6.2335208e-02
 -7.2782738e-03
 -4.3215889e-02
  6.5667637e-02
 -6.6191107e-02
 -1.1238869e-02
  1.8378902e-02
  2.7538663e-02
  1.0929953e-02
 -3.0972963e-02
 -3.1523504e-03
  7.6102479e-03
  3.0380413e-02
  4.6292588e-02
  4.0271904e-02
  2.2545868e-01
 -1.5545785e-03
  6.9187768e-02
  1.1344500e-02
 -1.2412687e-02
  1.1255549e-02
  5.0285485e-02
  2.9489286e-02
  1.2556225e-02
 -7.8912545e-04
  5.2258605e-03
  3.2094125e-02
 -9.4449215e-02
 -4.2987078e-02
  2.0158365e-02
 -4.3922007e-01
  2.0582222e-03
  3.9419528e-02
  5.0477213e-01
  5.9135363e-02
  2.5566587e-02
 -8.1474809e-03
  9.9804349e-02
  2.9815145e-02
 -4.5957677e-03
  4.7294401e-02
 -3.5966616e-02
 -7.7171659e-01
  4.7123757e-01
  9.3856461e-02
  3.1878904e-01
  6.6585612e-01
 -8.6299710e-02
 -5.8664548e-01
 -5.4589522e-01
  1.8762134e-01
 -5.1121408e-01
 -1.9112489e-01
 -5.8782343e-02
 -4.1518351e-03
 -5.0308473e-02
  5.3363717e-01
 -8.6525656e-02
  1.1334968e-01
  2.8106910e-01
  9.3662284e-02
  7.1847266e-01
  2.0041586e-01
 -7.6936990e-01
  3.4454146e-01
 -1.5489192e-01
  5.5678838e-01
  3.3416265e-01
 -3.0895808e-01
  1.6400295e+00
  8.9006171e-02
  6.4601101e-02
  1.4440383e-01
  1.4281590e-02
  4.0999860e-01
 -7.0034288e-02
  6.0511254e-02
 -3.8544053e-01
 -1.0597910e+00
  9.3857348e-01
  3.3744968e-02
  1.0268117e+00
 -8.2090855e-02
  9.5117278e-02
 -2.6195673e-03
  1.7527656e-01
 -3.3973256e-01
  2.1436987e-03
  4.0373975e-01
 -3.5998192e-02
 -2.6576508e-02
  2.9205482e-02
  5.1980847e-03
  2.4136299e-02
  2.4081098e-02
 -3.4527525e-01
 -7.2807848e-01
  4.2742891e-03
 -1.1106699e+00
  1.4957462e-02
  1.6387203e-01
  2.6211257e+00
 -1.6805390e-02
 -1.5998119e-01
 -1.8527590e-02
  4.9897261e-02
  4.4177431e-03
 -1.0580949e-02
  8.4388284e-03
 -7.5836286e-02
  1.1049690e-02
  4.7255531e-03
  8.0841774e-01
 -2.4397619e-02
 -3.8652751e-03
  1.8100802e-02
 -2.6118224e-03
  1.7360255e-02
 -1.5857492e-02
  4.5522645e-02
  6.3161165e-03
 -1.4266827e-02
 -3.7665952e-02
 -1.5616775e-03
  2.4168152e-02
 -3.1543031e-02
  4.4131270e-03
 -4.1790053e-01
 -8.0920709e-03
 -5.1741928e-02
 -5.2608852e-03
 -5.1494287e-03
 -9.0029001e-02
 -4.0590685e-02
 -3.4001581e-02
 -7.2460673e-03
 -8.5064285e-03
  2.3115630e-01
 -5.6368226e-01
  1.3562280e-01
 -1.0904194e+00
  1.6346137e-01
 -4.7896793e-01
 -1.6584247e-02
  3.0487999e-01
  8.9238781e-01
  5.5701578e-01
  4.8963871e-02
  1.5452842e-01
 -3.1044379e-01
 -1.3993290e-02
  8.8004440e-02
  3.8014213e-04
  1.2027035e-02
  8.3040502e-03
  9.9342905e-02
  5.8171181e-03
 -3.6737478e-01
 -1.4299184e-02
 -1.7241366e-02
 -2.5187489e-01
 -1.8476065e-01
 -8.3317049e-03
 -2.1801457e-02
 -3.2820068e-02
 -4.6210422e-05
 -9.0690687e-02
 -4.7948852e-02
  1.3003841e-01
  1.6033679e-02
  2.1944523e-01
  7.3875532e-02
 -1.4794517e-02
 -4.8663985e-02
 -1.3506008e-02
 -1.3377559e-02
  1.7279934e-02
 -3.0020023e-02
 -1.7559758e-01
 -1.7965950e-02
 -2.6381308e-02
  2.0349892e-03
  6.7829166e-04
  3.2824785e-03
  3.4061901e-02
  3.7657142e-01
  1.1977221e+00
 -2.0432410e+00
  6.8845361e-01
 -7.2558975e-01
  2.5059620e-01
 -2.2123390e-01
  7.7917284e-01
  1.5736760e-01
  1.9852757e-02
 -4.6999130e-01
  4.8360217e-01
  2.5768211e-01
  1.7791434e-01
  1.2423290e+00
 -5.1837909e-01
 -5.6446320e-01
  7.3417425e-01
 -8.9785196e-03
 -8.0075890e-01
  6.8116682e-03
 -4.7943521e-01
 -1.5116175e+00
  1.2031487e+00
 -1.2715923e+00
 -1.4417490e-01
  8.9092964e-01
  3.8967466e-01
 -1.1321617e-01
  4.1761941e-01
  7.4667102e-01
 -1.7809057e-01
 -8.2682908e-01
  2.0826616e+00
 -4.4974563e-01
 -2.4417251e-01
  5.5755931e-03
  2.7026418e-01
  4.1232926e-01
 -4.8361983e-02
  1.5779424e+00
 -9.2627150e-01
  1.9945777e-03
  2.7812691e-04
 -2.7398884e-01
  1.5213715e-01
  2.1955743e-01
  8.4593773e-02
 -9.4531598e-03
 -2.8232637e-01
 -2.9812881e-01
 -4.7669736e-01
  6.1820859e-01
 -8.0200112e-01
  7.9816395e-01
  1.4269923e-01
 -2.2129729e-02
 -4.2981226e-02
  1.3286346e-01
 -8.5620992e-02
 -1.7780904e-01
  6.6284976e+00
  2.5116947e-01
  7.6332537e-04
  1.6703247e-01
  2.4503818e-01
 -1.6935440e-02
 -5.4776835e-01
  8.1813312e-01
  4.1709372e-01
  7.9947226e-03
  6.7335799e-02
  6.3961960e-02
  2.7703876e-03
  2.0769652e-02
  4.5697377e-03
  1.3321932e-01
  7.3100835e-02
  7.0606184e-01
  2.2943728e-03
  1.0367452e-02
  1.1086117e-02
  8.1373684e-02
  1.5280434e-01
  1.2702611e-01
  4.2933130e-01
 -7.4675047e-01
  2.8492630e-02
  1.7496413e-01
 -6.5200571e-03
 -6.8123899e-03
  6.6128960e-03
 -6.3309126e-02
 -5.1571891e-02
  4.3294825e-02
  4.5369286e-03
 -5.5156559e-01
 -1.6338475e+00
  4.0107810e-01
 -3.3151686e-01
  4.6309218e-01
  6.7883998e-02
 -7.2402304e-01
  3.2982683e-01
 -3.7762680e+00
  4.3533823e-01
 -6.9890052e-02
  5.6454849e-01
  1.3480119e+00
 -2.2575449e-02
  1.9050844e-02
 -4.3767667e-01
 -9.9128410e-03
 -2.2884575e-01
  2.1532705e-02
  1.2315914e-02
  3.1091350e-01
 -1.9780902e-02
  6.8516481e-01
 -3.3189169e-01
 -5.8427267e-03
  7.5448895e-01
  8.4084964e-01
  5.6569999e-01
  2.4879320e-01
 -4.7768734e-02
  8.5931420e-01
  6.2586427e-01
  2.2386795e-02
  8.2345121e-02
  1.6206491e-01
 -3.9931249e-02
 -1.2003724e-02
 -3.0607447e-02
  7.1806377e-01
  2.2167325e-02
  2.3062205e-02
  1.2604971e-03
  6.6813812e-02
 -1.2986667e-02
 -1.3252772e-02
  1.1197818e-02
 -1.7122149e-03
  2.2563603e-02
  2.4219221e-01
  1.1522951e-02
 -5.2540648e-01
 -2.8156236e-01
  2.1632402e-01
 -7.2180247e-01
  9.2798799e-02
 -2.0345272e-01
 -7.9557711e-01
  2.0618625e-01
  9.2856728e-02
  4.8115262e-01
 -8.3140098e-02
  3.2839262e-01
 -1.0812767e-02
 -1.2461963e-02
 -2.6051626e-02
 -1.6213178e-03
 -2.1257095e-02
  4.9312785e-04
 -5.5240575e-02
 -4.6891771e-02
  4.5034755e-02
 -2.7362320e-01
 -3.5395683e-03
  1.2057159e-02
  9.6814465e-03
 -1.5980395e-02
  1.3370296e-02
 -8.7430514e-03
 -1.9722542e-02
  9.9770211e-02
  2.4656281e-03
 -3.7714131e-02
 -1.0108527e-01
  6.8804538e-03
  1.4036220e-02
 -9.0763997e-03
  2.5055844e-01
  7.3972242e-03
  4.4690248e-02
  9.0823472e-03
  9.1092056e-03
  3.3925980e-02
 -2.5407301e-02
 -4.6908394e-03
 -4.2868447e-02
  9.8334653e-03
 -5.5470181e-01
 -1.0017266e+00
 -1.0606931e+00
  2.7914253e-01
  1.0569583e+00
  1.9290273e+00
 -2.1980557e+00
  4.9287474e-01
 -8.6551309e-01
 -3.6089706e-01
  3.4071836e-01
  2.1962295e+00
 -3.4585807e-01
 -2.0095740e-02
 -4.2131495e-01
 -1.3654251e-02
  2.8646762e+00
  6.9714814e-02
  3.9721571e-02
 -8.0478257e-01
 -1.3056940e+00
  5.2430463e-01
  2.1492594e-01
  1.0850304e+00
  1.8718552e-02
 -7.1423292e-01
 -1.0618946e-02
  2.3199437e+00
 -6.4137888e-01
  1.4517136e-02
  3.2491416e-01
 -2.5638537e-03
 -1.9946688e-01
  2.8228665e-02
 -1.2144552e-02
 -8.9577012e-02
 -1.1719190e-02
  5.9985769e-01
  2.6855120e-01
 -1.0588368e-02
  4.9089701e-03
 -9.4129747e-01
 -4.5428869e-01
 -2.3076158e-02
 -2.1030092e-01
  3.6775461e-01
 -2.3623280e-02
  3.1763972e-03
 -2.1004406e-01
  7.1766746e-01
  3.2847473e-01
  3.9664292e-01
 -2.4864968e-02
  4.7025028e-01
  8.5922137e-02
 -7.2060123e-02
 -1.4848730e-01
  5.1439649e-01
  6.3735517e-03
  1.5869671e-01
  1.3831314e-01
  2.3767499e-02
 -6.4791371e-03
  5.5480287e-03
 -1.0085092e-01
  3.6471034e-04
 -1.4744013e-02
 -2.1585904e-02
 -2.7160463e-04
 -7.7799059e-02
 -6.1546892e-02
  3.6977524e-01
 -1.1379338e-02
  2.2774611e-02
 -5.4896867e-01
  6.9533505e-02
 -5.3232964e-03
  1.1527017e-02
  6.1495318e-03
 -2.4102677e-01
 -7.2879791e-03
 -1.4863357e-02
  2.9219164e-02
 -5.2529306e-04
  9.1809174e-03
  7.7279367e-02
  5.8356386e-01
  5.8578607e-02
  4.2674854e-02
 -8.2313931e-03
 -6.1793933e-03
  2.5420649e+00
  3.9204722e-03
 -3.6627237e-02
  8.4189977e-03
 -1.9376649e-02
 -2.7263527e+00
 -3.5537493e-01
  2.6935900e-03
 -4.9353343e-02
  1.1811696e-01
  6.1463885e-02
  9.5432969e-03
 -2.3811312e+00
 -3.7137470e-03
 -6.3863242e-01
  1.7213777e-01
 -4.5445836e-01
 -1.1363523e-02
 -1.9196363e-02
  3.9571870e-02
 -1.6371854e-02
  2.3189893e-02
 -2.4920337e-02
  2.6663145e-02
  4.4778820e-02
  7.3237480e-03
  6.1297517e-02
 -5.4574655e-03
  1.2957374e-02
  3.9978836e-02
 -1.0024125e-01
  2.2340063e-02
 -1.6536716e-02
 -3.3796383e-03
 -2.6892841e-02
 -2.6065744e-03
  2.6517583e-04
 -3.3088634e-04
 -6.9562204e-02
 -3.3664770e-02
  2.1930344e-02
 -1.9130096e-02
 -3.9574515e-02
 -9.2391865e-03
  1.3629927e-02
  1.0324869e-02
  1.2225221e-02
 -1.4693770e+00
  1.8974895e-02
 -3.4992208e+00
  1.4639162e-02
 -7.0118550e-03
  4.3032870e-02
 -1.9688843e-02
  2.0343125e-02
 -1.1303573e-02
  3.2333708e-03
  2.7897889e-03
 -2.6113525e-02
 -2.4319834e-01
 -1.7117426e-02
  1.0129468e-02
 -4.8429784e-03
  1.2239798e-01
 -3.5943155e-04
 -1.4701972e-02
 -3.3415079e-02
  2.5162434e-02
  2.5229918e-02
 -2.2226248e-02
  1.2316630e-03
 -1.4119803e-02
 -2.6729451e-02
  3.8800519e-02
  4.1129541e-02
 -2.2576967e-02
  5.3732727e-02
  2.4740068e-02
 -1.8806539e-02
  2.8159017e-02
 -2.5410481e-02
  7.6493853e-01
 -5.0028548e-02
 -2.0342862e-02
  3.1583291e-03
  3.7169419e-02
 -4.8809419e-03
  6.3069034e-03
 -6.9905431e-03
 -2.2660572e-02
 -1.3967191e-02
  1.0144440e-02
  2.4402972e-02
 -6.8187062e-04
 -1.8197436e-02
  2.4925599e-02
  1.2588222e-04
  1.6010029e-02
 -4.1660806e-03
 -2.2786494e-02
 -8.7637175e-04
 -2.5022779e-02
  1.5860461e-01
 -8.5744143e-02
  1.7614570e-02
 -2.8453257e-03
  5.7254367e-02
  4.4425200e-03
  3.2768065e-01
 -2.8693825e-02
  2.2294438e-02
 -2.4080300e-01
  1.1292979e-01
 -1.3155278e+00
 -8.8229170e-03
 -6.9607510e-03
 -5.6151342e-02
  1.7868180e-02
 -4.6670943e-02
 -8.1485771e-03
 -1.8016182e-02
  2.0165851e+00
 -3.0577295e-03
 -4.8328633e-03
  6.5784706e-03
  1.1230902e-02
  2.0599030e-02
 -6.8936381e-03
  2.7951468e-02
  1.0019971e-02
 -3.1300765e-02
  6.7429054e-03
 -4.7599645e-03
 -1.2487312e-03
  1.6427480e-02
  6.5734489e-03
 -7.8065269e-02
 -1.3964876e+00
 -3.8270812e-02
 -1.0181958e-02
 -3.0927449e-03
  8.9779133e-03
  5.9753641e-02
  5.9799545e-02
  4.6319205e-01
  1.4313774e-03
 -2.1668192e-02
 -3.2585009e-03
  2.7547222e-02
  2.8508900e-02
  3.4815300e-01
  2.3816979e-02
 -3.4985155e-02
 -6.6816598e-02
  3.1634843e-01
  3.2010534e-01
 -1.0869960e-01
  2.3848613e-01
 -2.7431017e-01
 -9.8961234e-02
  5.3897124e-02
 -5.5024553e-02
  1.1458348e-02
 -3.7785485e-02
 -5.3307726e-03
 -1.8181229e-02
 -1.9580575e-02
 -8.6970814e-03
 -8.4778070e-03
 -4.5182273e-02
  1.5939640e-02
 -2.3067145e-02
  2.7097415e-02
 -1.2871828e-03
  2.6043272e-04
  6.7368232e-02
  1.9204617e-03
  8.1478372e-02
  7.9788677e-03
  7.6980991e-03
  1.4479244e-03
 -2.1841042e-03
  6.5494874e-03
  3.2525789e-02
 -5.9524691e-03
 -7.7687493e-03
 -2.4012646e-03
  5.9090229e-03
 -2.4762079e-02
 -2.6646189e-02
 -1.8552900e-03
 -1.3764963e-02
 -5.8540967e-03
 -2.3961447e-02
  1.7530903e-02
 -1.6871929e-02
  2.4431682e-01
  3.7701979e-01
 -2.6973115e-02
 -3.5312527e-01
 -6.0977888e-01
 -3.8019594e-02
  1.0237932e+00
  5.3277358e-02
  9.2598432e-01
  9.4088376e-05
  9.5730245e-02
 -1.8234800e-01
 -1.2090468e+00
 -3.4659940e-01
 -1.9867007e-02
 -1.0002631e-01
 -2.7151551e-02
  4.8845960e-03
 -1.5822887e-02
  7.6106200e-03
 -1.6138652e-01
 -2.7158209e-03
 -2.6136125e-02
  2.3572093e-03
  3.9229109e+00
 -2.5276490e-02
 -1.3589791e-02
 -4.5896057e-02
 -5.6340573e-03
 -9.7429175e-03
 -2.8425589e-02
  1.1157158e-01
 -1.8061057e-01
 -8.1552658e-03
 -2.5498277e-02
  3.4514819e-03
 -1.0677638e-02
  8.8024855e-02
 -1.6759228e-02
  6.1813314e-02
  6.8561477e-03
 -1.4433043e-01
 -2.4336749e-03
  1.3227621e-03
  4.2090993e-03
 -4.7096703e-03
 -1.8540211e-02
  3.4271390e-03
  3.5267226e-02
  1.1036015e-02
 -3.9803252e-01
 -6.7972898e-02
 -1.9325310e-02
 -1.3574778e+00
 -1.1961540e-01
 -2.2162353e-01
  7.9475962e-02
 -1.7653902e-03
 -7.0616323e-01
 -4.9657980e-03
 -9.1369428e-02
 -5.5496845e-02
 -1.9566876e-01
 -3.4868255e-02
 -1.5208156e-02
  2.5609069e-02
  5.6686569e-03
  5.5259041e-02
  1.3529712e-02
 -2.7278949e-02
 -2.6623903e-02
 -3.5532814e-02
 -5.9629325e-02
 -3.0975952e-04
  3.0195616e-02
 -5.0953064e-02
  1.2887314e-02
 -1.1003885e-02
  5.6569115e-03
 -1.0727467e-02
  2.6914233e-02
 -5.6130639e-03
  1.0165375e+00
  2.0536156e-02
  4.9484051e-03
 -3.5058707e-05
  2.0205942e-03
  5.2593414e-02
 -3.2759353e-04
 -3.4313254e-02
  7.6937348e-02
 -4.5028239e-02
 -5.2205855e-03
 -3.8642175e-02
  1.2352895e-02
  1.7971907e-02
  2.6467511e-02
 -7.0422967e-03
  2.0790311e-02
 -1.1219124e-02
  1.0802219e-02
 -1.8222515e-02
  3.2353094e-01
 -5.0357860e-03
 -1.0161069e-02
  1.8472515e-02
  1.2806928e-01
  4.2893443e-02
  6.0742568e-02
 -1.2280581e-01
 -1.6373795e-02
  3.9370274e-03
 -2.7608067e-02
  6.6532753e-03
  2.8571017e-02
  9.7805500e-02
 -2.0666463e-02
  1.2736892e-02
 -4.3990664e-02
  2.2568367e-03
  2.0764975e-01
 -5.1124081e-02
  7.4619404e-03
 -1.2337428e-02
 -2.3758896e-03
 -1.1810308e-02
 -1.1318087e-02
 -1.1144722e-02
  6.9276504e-02
  5.4199114e-03
 -8.2118846e-02
  8.7256283e-02
  2.2828523e-02
  6.9202460e-02
 -1.4933521e-02
 -4.8884150e-02
 -6.1525251e-03
 -4.2741848e-03
 -3.0403471e-02
  2.9795678e-02
  3.0635059e-02
 -1.9372385e-03
 -4.2922892e-02
 -3.6043376e-03
  3.5472743e-02
  9.6903309e-02
 -9.0186201e-02
 -1.1273581e-01
  3.6030877e-01
  1.4719121e-01
 -1.4033814e-01
 -5.3195548e-03
 -3.9717931e-02
  1.2803573e-02
  1.4297894e-04
 -7.7688932e-02
 -1.4366953e-01
 -2.3364721e-02
 -8.0763130e-03
  8.1349555e-03
  6.6129935e-01
 -1.5351114e-01
 -1.6819766e-02
  3.7174567e-03
 -7.1998760e-03
 -5.5049407e-01
  2.1237575e-01
  7.1798258e-02
 -1.5406148e-01
 -2.1197292e-01
 -4.6052169e-02
 -3.3875320e-02
 -8.4079076e-03
 -3.7926219e-02
  3.8749594e-03
  2.1288721e-02
  3.6581883e-01
  1.5543027e-01
 -1.6335400e-02
 -2.6020212e-03
 -6.1378479e-03
  1.5311996e-02
 -1.3108559e+00
 -2.9507235e-02
  2.3629064e-02
 -2.1244518e-01
 -2.1564428e-02
 -1.3880028e-03
 -5.8206450e-02
 -7.1138516e-03
 -1.6127142e+00
 -3.4767151e-02
 -1.1320113e-01
 -1.5429235e+00
  4.9198633e-03
 -5.8535792e-02
 -6.3152581e-02
 -8.2558237e-02
  3.3830196e-01
  1.7855765e-01
 -1.3143329e-01
  3.1466104e-02
  4.3500863e-02
 -7.7812791e-02
  3.7262481e-02
 -1.0502020e-02
  3.2071948e-02
  3.8251650e-02
 -5.7167984e-03
  1.8255634e-04
  3.3708278e-02
  5.3278399e-03
  2.6347652e-01
 -1.1152759e-02
 -4.0218133e-02
  3.4198929e-02
 -7.3788338e-03
  5.1807523e-02
  5.1227279e-02
 -1.5428987e-02
  1.9677060e-03
  3.7386678e-03
  5.3391941e-03
 -8.0000544e-03
  3.5332631e-02
  1.9114796e-02
 -6.6225342e-02
  1.2942836e-02
  1.0364469e-02
  4.8440769e-02
 -3.2724809e-02
 -1.8631291e-03
 -1.3477100e-02
 -2.3675198e-03
 -3.3314317e-01
 -8.1481561e-03
 -1.8285632e-02
 -1.2048511e-02
  5.7063028e-03
  6.2575400e-02
  1.5043542e+00
  3.4035675e-02
 -3.4921736e-02
  3.3485115e-02
 -2.9224165e-02
 -3.3063013e-02
  6.8512964e-01
  2.0079428e-02
 -5.8083516e-03
 -5.5074897e-03
 -8.3317816e-02
 -4.6098363e-02
  3.4328278e-02
  2.3245644e-02
  3.3126578e-02
 -1.6519532e-02
 -1.0337568e-02
  4.4858448e-02
  4.8024520e-02
 -2.9425002e-03
 -8.9222947e-03
 -1.0558225e-02
  2.7224407e-02
  3.8644183e-02
 -3.5314210e-02
 -5.7680288e-04
 -1.5186999e-02
  2.0813156e-02
  2.1343898e-02
 -2.0470070e-03
  4.9797490e-02
  6.8385084e-03
 -2.2375248e-02
 -3.7246197e-04
 -1.3783857e-02
 -1.6132949e-02
 -4.4580502e-03
 -1.0272930e+00
  8.2458947e-03
 -9.5954631e-03
  2.0996667e-02
 -1.0319156e-02
 -5.0637545e-04
  1.1885312e-02
 -3.0443925e-02
  3.3952557e-02
  3.3477806e-03
  2.5395580e-02
 -6.8030171e-02
  7.1511543e-03
  1.9598316e-02
  1.2472342e-03
  3.1876655e-03
  5.3071085e-02
 -4.3534359e-01
 -2.1419320e-01
  4.9606316e-02
 -1.9935869e-02
 -6.6836653e-03
 -1.8634406e-01
 -7.9578338e-03
 -4.5232661e-03
 -9.4083520e-03
 -3.4099374e-02
  1.4320046e-03
  2.6249480e-02
  3.1000087e-01
 -4.4510551e-02
 -2.0219931e-02
 -3.2758076e-02
 -2.8920004e-02
 -2.4786869e-02
  2.3487978e+00
  6.0455106e-02
  2.6587296e-02
 -3.8716469e-02
 -6.4543490e-03
  2.3071539e-02
  8.0514504e-03
  7.3340023e-03
  1.1970552e-01
  2.2319786e-03
 -1.6050520e-03
 -4.0013537e-02
 -5.7895906e-02
  3.9816629e-02
 -3.6337771e-02
  2.3269816e-03
 -1.1971737e-03
  8.2077505e-03
  2.4411189e-03
 -1.9233454e-02
 -7.3063299e-03
  1.9931993e-02
 -3.6579324e-04
 -2.4136067e-03
  2.2430729e-02
  1.3711891e-01
  3.4059918e+00
 -5.1925659e-02
 -3.9910655e-02
  4.7116941e-01
 -5.7788181e-01
 -5.2628022e-01
  2.2917085e+00
  4.2207990e-02
 -6.6565198e-01
  5.7024819e-01
 -7.5004476e-01
  1.0039318e-01
  2.4175044e-02
 -9.5598707e-03
  5.0411817e-02
  3.0461255e-02
 -4.1794870e-02
 -4.8889061e-03
 -3.7117276e-02
  6.4262077e-03
 -7.6865498e-03
  9.7878799e-02
  1.2668735e-01
 -2.4522107e-02
  2.0842135e-02
 -1.7459625e-02
  2.8677698e-02
  4.3811685e-01
  1.2016036e-02
  4.7096312e-03
 -2.7252100e-02
  3.1183511e-02
  8.4294006e-03
 -7.7308759e-02
 -4.2206634e-02
 -3.2881252e-02
 -4.1765168e-02
 -3.2959975e-02
  5.0538946e-03
 -1.5107244e-02
 -9.8773253e-01
 -3.9622798e-03
 -2.2298861e-02
 -4.8739691e-03
 -3.9022405e-02
 -9.9600209e-03
 -1.1024689e-03
  7.3795822e-03
 -1.1738333e-01
 -2.4717709e-02
  1.5235419e-02
 -1.5100783e-01
 -5.2161366e-03
 -1.4740823e-02
 -1.7005749e-01
  7.5925291e-03
  8.9361832e-02
  8.5703745e-02
 -6.5962011e-01
 -1.6024875e-02
  1.2316704e-03
 -2.1754175e-02
  6.2197172e-03
 -5.5435551e-03
  1.4440127e-02
  1.4541077e-02
 -1.8260205e-02
 -2.2294249e-02
  8.3879977e-03
  1.1200631e-02
  4.8818937e-01
 -5.3658485e-02
  7.1028853e-03
 -1.5708802e-02
  3.2253128e-02
 -2.3800902e-02
 -1.1987018e-02
  1.3208294e-02
  1.0793191e-02
 -5.4617329e-03
 -3.4382283e-03
 -4.2902187e-02
  1.0447683e-01
 -1.3593765e-02
 -1.4937309e-02
  2.8057639e-02
  3.9674576e-02
  2.1322506e-02
 -1.4358133e+00
  1.4382143e-02
 -1.1922115e-01
  5.1783901e-03
 -9.4834836e-03
 -1.4329261e-01
 -2.7081605e-02
  2.9486147e-01
  9.0818411e-01
 -5.2627110e-01
 -5.4868871e-01
  2.0104298e-01
 -1.4222276e-03
 -1.2475087e-01
  7.2168745e-02
  1.3481330e+00
 -1.4980489e-01
 -2.3471723e-01
  1.0627642e-01
 -6.9168344e-02
 -2.1715957e-01
  1.0000943e-01
  1.2660661e+00
  1.5862380e+00
  1.1653211e+00
 -9.1371673e-01
 -1.4587271e-03
 -3.0687516e+00
  1.2941619e+00
  6.5542585e-01
  1.1621789e+00
 -4.1523463e-01
  2.5775824e+00
 -1.3446921e+00
 -1.0766596e+00
 -1.1059957e+00
 -1.9612054e+00
  1.0142262e+00
  1.9206545e+00
  6.0985118e-01
 -1.1520909e+00
 -1.3051648e-01
 -1.4071656e+00
 -1.0136578e-02
 -1.9655600e-01
 -9.1820246e-01
 -3.1701778e-04
 -2.2046175e+00
  1.2693222e-01
 -1.3607356e-02
 -9.0443951e-01
 -8.0395752e-01
  7.5940883e-01
 -2.8243348e-01
 -4.0117487e-01
 -8.6094640e-02
 -2.5422839e-02
  4.8576266e-02
 -5.8665320e-02
  3.0780857e-02
  4.9278773e-02
 -2.0443918e-02
  7.0849448e-02
  5.9879026e-03
  9.0162970e-02
 -1.7638978e-02
 -6.0493380e-02
  3.2914281e-02
  4.0109642e-02
  4.0908586e-03
 -2.7476884e-02
  2.8903611e-02
 -3.8956245e-03
 -9.5616532e-03
  2.2216775e-03
  2.5380513e-02
 -3.9638527e-02
 -1.6723864e-02
  2.7415019e-02
  3.7538461e-02
  4.8370282e-03
  3.4988075e-04
  6.6041341e-03
  1.3334530e-02
  2.0108104e-02
 -1.1896394e-02
 -1.8199403e-02
 -2.7211690e-02
 -1.9780546e-04
  5.3619429e-02
 -1.4853902e-02
 -1.3911298e-02
 -1.2340944e-02
  5.5677265e-02
 -3.4841016e-02
 -1.2899224e-02
  1.4718598e-02
 -1.3319092e-02
  2.2046274e-02
 -1.0386106e-02
  1.6802769e-02
 -3.6263396e-03
 -5.9155570e-03
  5.8985424e-01
 -2.0669870e+00
 -4.6091009e-02
  2.4539934e-02
  1.4796408e-01
 -1.1209897e+00
 -7.7157128e-01
  2.1799800e-01
  8.6931236e-02
 -1.3215628e-01
  4.7829425e-01
  4.7154379e-01
 -6.0006750e-01
  7.4273467e-02
 -5.6974366e-02
  4.2912234e-03
 -2.0868942e-02
 -3.8093422e-05
 -1.1761477e-02
  6.0275458e-02
  1.8986486e-02
 -5.2160475e-02
 -8.7263972e-02
 -2.8208083e-02
  7.4148223e-02
 -2.3550786e-02
 -3.1028328e-02
 -1.0536050e-02
 -8.5784029e-03
 -1.1789984e-02
 -1.0172585e-02
  1.7199720e+00
  3.4821916e-02
 -1.4376848e-02
 -6.1294526e-02
  1.1349322e-02
 -6.0019705e-02
  7.8926440e-03
 -7.0348023e-03
 -1.2445111e-02
 -5.0011575e-03
  3.7214332e-03
  4.6640257e-03
  8.7334886e-03
  2.2532297e-02
  1.6229790e-02
  4.4727256e-04
 -3.7471827e-02
 -3.6599755e-02
 -1.0472096e-01
 -1.0908245e-01
  3.6800459e-01
  2.8158794e-04
  1.4725152e-01
 -1.2778978e-01
 -1.5783277e-01
  1.8616045e-02
 -2.2755831e-01
  5.0586909e-02
 -4.1916970e-02
 -1.9443388e-01
 -4.9371589e-02
 -3.4376156e-02
  1.9598462e-02
 -2.7205188e-02
  2.3442168e-02
 -4.4566527e-02
  1.6628757e-02
 -2.5099637e-02
  3.8691053e-01
  1.4812444e-01
 -1.4288834e-02
 -1.5497734e-01
 -7.4220158e-04
 -3.3012088e-02
  9.5607705e-02
 -1.1961595e-02
 -2.4237886e-02
  2.1882901e-02
 -3.2754164e-02
  3.0155161e-02
  7.5434975e-02
 -9.1537088e-02
 -1.2861146e-04
 -7.7493256e-04
  2.8571386e-02
 -4.7025275e-01
 -2.8330581e-03
  3.7122160e-02
  7.8387093e-03
  1.9209874e-01
  3.4291558e-03
 -2.4154017e-02
 -1.5817611e-02
 -1.1655556e-02
  5.4146862e-03
 -6.7080396e-01
 -1.7321734e-02
 -4.4171875e-03
 -4.8850765e-03
 -1.7601496e-02
  5.9098040e-04
  1.4618070e+00
 -8.3405346e-02
 -2.6351912e-02
 -1.4278321e-02
  2.3174347e-02
 -8.2841702e-04
  1.9857882e-02
  1.2561083e-02
 -4.5748480e-02
 -5.7086051e-03
 -2.2126988e-02
  3.0954510e-03
 -2.5046632e-02
  2.3687122e-02
 -8.4523130e-03
 -2.2404281e-02
 -8.3651550e-02
 -2.7454556e-03
  4.6459003e-04
  1.8150140e-02
  1.4838304e-01
  3.0864626e-02
 -2.3889858e-02
  6.4838752e-03
 -4.1790958e-02
 -2.0046469e-02
  1.9516038e-02
 -8.3674639e-03
 -6.9755137e-02
  1.6470911e-02
  4.6834379e-02
  1.1310456e+00
 -5.7997230e-02
 -2.2804167e-02
  2.5405325e-02
 -1.8389340e-02
  6.4288594e-02
  1.7479691e-03
 -3.5054248e-03
 -8.3122943e-03
 -2.5872076e-03
 -5.5339076e-03
 -8.9810431e-01
 -5.7417341e-03
  3.1418404e-01
  2.2900784e-01
  1.2616569e-01
 -5.0807502e-02
  3.6032021e-01
 -1.1528398e-01
  4.6757075e-01
 -5.9974074e-02
 -2.8655723e-01
 -4.1489284e-02
  5.3508025e-02
  9.2919730e-03
 -1.4774777e-01
 -1.3710091e-01
 -2.2366358e-01
 -8.6625755e-02
  3.1466341e-01
 -3.1859210e-01
 -5.8758460e-02
 -2.7368879e-02
 -4.6144575e-01
  1.1076242e-01
  5.0188404e-01
 -8.7781437e-02
 -4.6036325e-02
  6.5247463e-03
  8.4951846e-04
 -1.1443634e-01
 -4.0727681e-01
 -4.6906635e-01
  2.1907762e-03
 -8.9557268e-02
  1.4906480e-02
 -1.7530028e-02
  9.4713084e-03
  6.7171077e-03
 -5.3398442e-02
 -5.0831981e-02
 -2.8693395e-02
  1.5776515e-02
 -1.2844219e-03
  1.6477661e-02
 -9.2826122e-03
 -7.9906620e-03
  2.3904797e-02
 -7.9385541e-02
  1.2806014e-03
 -1.7672293e-02
 -4.5894489e-02
  1.2829626e-02
 -3.6530455e-03
  1.5741071e-02
 -1.3864376e-02
  4.2078011e-02
  8.7166438e-03
  2.3230228e-01
  8.7810856e-01
  1.2568691e-02
  5.7641519e-03
  5.2105326e-02
  2.9389162e-02
  1.1279915e-02
 -2.1877628e-02
  7.3758058e-02
  8.5610159e-02
  6.9092977e-01
 -4.2308353e-02
 -4.2164378e-02
 -1.1864885e-02
  1.4093368e-02
  3.3138506e-02
 -6.2330151e+00
  3.9472520e-02
 -3.8375378e-02
 -1.9338721e-02
 -8.8908523e-03
 -5.0213359e-02
  8.2875183e-03
  1.9865006e-02
  3.5984736e-02
  9.7544687e-03
  2.5816620e-03
  4.5295969e-02
  4.4273466e-02
  6.0741859e-03
  2.9319227e-02
 -2.1440208e-02
 -5.3231653e-02
  2.4950229e-02
 -1.7996714e-03
 -2.5921937e-02
  1.1818093e-04
 -5.4629305e-03
 -1.1876601e-02
 -3.5912910e-01
  6.7740005e-01
 -6.1723405e-01
  3.4894195e-01
 -2.9026836e-02
 -4.6220258e-02
  6.0677445e-01
  3.6916390e-01
  7.9834294e-01
  1.0311678e-01
  7.7979964e-01
 -1.1836788e-01
 -8.0371940e-01
 -2.9934326e-01
 -6.1656523e-01
 -8.3081609e-01
  2.3833773e+00
 -9.2104477e-01
 -1.4087094e-01
  4.8767754e-01
  7.7610880e-01
  6.7282051e-02
  1.7505034e+00
 -1.5253137e+00
 -7.2431356e-01
 -4.2638254e+00
  4.6119514e-01
 -7.2680724e-01
 -1.0455233e+00
 -1.8546335e+00
  3.6428049e-02
 -8.1924790e-01
  1.3209674e+00
  5.0701725e-01
 -1.2223855e+00
  6.3095838e-02
 -1.0260480e-02
 -1.9367038e+00
 -6.1868316e-01
  1.4875585e-02
 -2.9719374e+00
  1.2366999e-02
 -1.2019901e-01
 -2.0880176e-02
  1.9556252e-02
 -6.1991942e-01
 -2.0424363e-01
 -4.2120527e-02
  7.2172040e-01
  2.9354041e+00
 -3.4369820e-01
  1.6160272e-02
 -2.0634532e+00
  4.7592754e+00
 -3.1244009e+00
  1.6103028e-03
 -3.3872512e-01
  2.0411052e-01
 -1.8533744e-02
 -6.8010613e-02
 -2.0395229e+00
  1.4537828e-02
  2.8033286e-02
 -2.7539784e-02
  7.6288916e-03
  4.9217146e-02
  4.0940918e-02
  5.8487941e-02
 -3.5408244e-02
 -1.5648065e-02
  2.2257504e-03
 -1.2405787e-01
  4.4681963e-02
  7.1214000e-04
  7.6749194e-03
 -3.6887113e-02
  3.1093348e-02
 -3.1480752e-02
  4.7357976e-03
 -1.4511906e-02
  1.9505311e-02
  2.2003200e-02
 -4.1214311e-03
  2.8138673e-03
 -1.8638084e-03
 -4.9450132e-04
 -7.5410083e-03
  7.6776315e-03
 -4.5096491e-02
 -4.0671147e-02
 -2.5915883e-02
 -1.4997698e-02
 -3.1001419e-03
 -5.7507814e-03
 -3.0833757e-03
  1.4892969e-02
 -9.1324314e-02
  8.9100611e-01
 -6.2406641e-01
 -7.1053252e-02
 -9.7818828e-01
  5.0479478e-01
 -2.5650600e-01
  5.7611561e-01
 -3.8559330e-03
  2.4999216e-01
  5.9882146e-01
  8.2167065e-01
  4.6533325e-01
 -4.1313302e-03
  9.1292020e-03
 -3.6361221e-02
  1.2921938e-01
 -2.0313957e-01
  2.3654928e-02
  2.5683783e-02
  1.5092252e-02
 -3.9604318e-01
 -2.3405954e-02
 -1.7453843e-01
  1.0251615e-02
 -1.0007609e-02
 -7.5456247e-02
  5.0615976e-03
 -6.2343580e-01
  2.3985705e-01
  1.2242620e-01
 -2.9984996e-02
 -3.2802983e-03
 -8.3005272e-02
 -5.7844333e-03
  5.9421863e-03
  2.0952541e-02
  2.5214704e-02
  2.4529128e+00
  1.6483905e-02
  7.5135216e-02
  8.2309335e-02
 -1.5077461e-01
 -7.4206537e-01
  4.1354376e-01
  3.6617316e-02
  1.9245025e-02
  3.6619134e-02
  5.1599015e-03
  9.1168834e-03
  1.4087877e-02
  3.5130210e-02
  2.9700527e+00
 -1.0260007e-01
 -3.6270276e-02
 -2.9829100e-01
  6.3842908e-03
  2.2647150e+00
 -1.3248446e-02
  3.2824457e-02
  3.8821317e-02
  2.2513986e-02
 -9.7673789e-02
 -1.0090733e-02
 -1.9694824e-02
 -1.1084822e-02
 -9.3117850e-03
  5.3314026e-05
  4.5727612e-03
 -1.6413642e-02
 -1.9123562e-02
 -1.7190529e-02
 -7.1332827e-02
  1.1438425e-02
 -2.9769680e-03
 -5.4435884e-03
  1.3039191e-02
  2.2289032e-02
 -1.3263160e-02
 -2.9704420e-02
  1.0489444e-03
 -8.3385304e-02
  8.7617196e-02
  3.1483152e-03
  1.1965325e-01
  1.4826511e-03
  3.7076093e-02
 -4.7751255e-03
 -3.6757404e-01
  7.3199598e-03
 -1.5846185e-02
 -3.8462291e-03
 -3.2511212e-02
  1.0347744e-02
  2.8533340e-02
 -8.1669381e-03
 -1.5347134e-01
 -1.6693966e-01
 -5.1581711e-01
 -2.4687797e-02
 -2.3007669e-01
 -5.5231386e-01
  2.8882769e-01
 -2.6484203e-01
 -5.2964610e-01
  1.9755865e+00
  1.1858205e+00
  5.1951444e-01
  6.6420221e-01
  7.7070318e-02
  7.5788698e-03
  2.4439424e-02
 -6.0913885e-01
 -2.0417988e-02
  5.7290667e-03
  6.9222990e-03
 -7.0788120e-03
  4.6719396e-03
 -7.6449420e-03
 -1.8646264e-02
 -6.5483907e-03
 -1.3891006e-02
 -1.8909693e-02
 -1.2174044e-02
 -5.5441093e-01
 -1.4337325e-02
  4.2814180e-02
  5.2963030e-02
 -9.1223996e-03
  3.3598885e-02
 -4.7419123e-02
  2.5807705e-02
  8.8380827e-03
  6.0762208e-02
  1.0885807e-02
  3.0967785e-02
  5.9428499e-03
 -2.5689026e-02
 -8.8049034e-03
 -2.9263109e-02
  4.4005543e-02
  2.4070958e-02
  1.5878707e-02
  8.7314565e-03
 -2.3343956e-01
 -6.6423017e-01
 -8.8489294e-01
  6.1949539e-01
  4.4809929e-01
 -6.9898599e-01
  9.9874359e-01
  3.8883233e-01
 -3.7390867e-03
  7.7334338e-01
  3.8091943e-01
 -9.1750699e-01
  3.2574761e-01
  7.7767624e-03
  2.7583488e-03
  6.1855331e-02
 -3.7054949e-02
  9.3941111e-03
  3.1387880e-03
 -8.4700949e-02
  3.4359342e-03
  1.8980694e-01
  7.1596152e-01
  1.4912860e-01
 -3.2054332e-01
 -6.9619194e-02
  7.7382978e-03
  1.0695480e-01
  7.6436442e-01
  6.6714275e-01
  3.9766002e-02
 -1.2940887e-02
 -1.7175697e-02
 -2.8354336e-02
 -2.1173568e-02
 -4.0541738e-03
  9.8425252e-03
 -5.9183713e-02
 -7.7043436e-02
  3.1546414e-02
 -3.7693426e-02
 -2.4378451e-02
  1.6701522e-01
  1.0057838e-01
 -4.0485924e-03
 -5.5589911e-02
 -3.4773953e-02
  3.2553811e-02
 -4.3725312e-02
 -4.4971403e-01
 -4.8574597e-01
  5.1008046e-01
  9.4886743e-02
 -8.5622174e-01
  2.3761426e-01
 -8.8966921e-02
 -3.7415782e-01
  1.4121433e-02
  2.3720863e-01
  4.7598979e-01
  5.0887144e-01
  2.4615137e-03
 -2.9620722e-01
  9.0528026e-02
  6.6334374e-02
 -4.5596993e-01
  7.8648916e-03
  6.4497897e-03
  3.0996632e-02
 -1.7294289e+00
  2.1759994e+00
 -5.1654446e-01
 -4.3565521e-01
 -2.1810345e-02
 -2.0383079e-02
 -1.8977564e-02
  6.6926837e-02
  1.4412017e-03
 -7.1706128e-01
  2.7402362e-01
  4.3114014e-03
  5.8736384e-01
  2.7098530e-04
 -6.2831029e-02
  5.0933030e-03
  6.9154250e-03
 -2.2039503e-02
 -9.0555623e-03
  1.9622384e-02
 -3.4911215e-02
  5.1326431e-02
  1.0562226e-02
  1.0708010e-02
  5.0444301e-02
 -5.9280656e-03
  2.2392087e-02
 -9.8751193e-01
  1.4627514e+00
 -2.7903600e+00
  2.2183878e+00
 -1.3115268e+00
  1.1913579e+00
 -6.3355231e-01
  9.3711448e-01
  5.9452224e-01
  7.6447916e-01
  9.1705728e-01
  4.5061472e-01
 -2.3297141e+00
 -3.2768375e-03
 -6.6537663e-02
 -1.3888994e-01
 -4.5137557e-01
  8.5389429e-01
 -9.0181082e-03
  4.3127569e-03
  2.6058641e-01
 -3.2263801e+00
  1.0444640e+00
 -1.8685998e+00
  6.5650895e-02
  1.7285360e-02
 -8.0840939e-01
 -1.7164497e+00
 -8.9860183e-01
 -1.4555117e-02
 -9.0971029e-01
  1.2022083e-01
 -1.3649167e-02
 -3.6817301e-02
  3.5894003e+00
 -1.6961579e-01
 -5.0158994e-03
 -2.1802871e-01
  1.1990221e+00
 -6.4674956e-03
  2.7435707e-02
 -5.1450826e-02
  1.0456594e-01
 -8.2527464e-03
  1.1760153e-02
  2.8415392e-03
 -2.8829975e-03
 -8.7975096e-03
  1.3038544e-02
 -3.2629246e-01
 -9.4475085e-03
 -1.1400709e-02
 -7.3026814e-03
 -1.4234018e-02
 -5.5910284e-03
  3.9161488e-02
  3.6316626e-03
  1.0261872e-02
  2.3127571e-03
 -3.9198782e-02
  5.3511087e-02
  1.9171022e-02
  2.0019991e-02
 -4.0018924e-02
  1.8500982e-02
 -4.8329867e-03
 -7.0485664e-03
  4.2609368e-03
 -4.4316705e-02
 -4.4269059e-03
 -1.8661960e-03
  8.5466541e-03
 -1.1767323e-02
 -1.5674595e-02
 -1.0126557e-02
 -1.8915962e-02
 -3.0447242e-03
  4.4872132e-03
 -4.2322427e-03
  1.2855483e-02
 -1.2348048e-01
  8.9045413e-02
 -1.4680825e-02
 -9.3075453e-04
  1.1279117e-02
 -5.3686876e-02
 -1.4495072e-03
 -5.5691050e-03
  2.8711842e-02
 -4.5870626e-03
 -4.6754344e-03
  5.0273787e-02
 -2.4889657e-02
 -1.1288066e-02
  3.5513978e-02
 -2.4788491e-03
 -1.0657687e+00
 -6.0928673e-01
  8.7912703e-01
  1.6570855e+00
 -7.9435456e-01
  2.2326553e+00
  6.7025518e-01
 -2.9998033e+00
 -1.1329312e-02
 -6.8265334e-02
 -6.1131932e-02
 -3.5731027e-01
 -2.3714475e-01
 -2.7290888e-02
 -2.8999032e-02
  8.9976266e-03
  7.4007465e-03
 -3.5423897e-02
  3.8505259e-03
 -5.5803295e-02
  5.7088103e-02
 -3.9855409e-03
 -1.0240776e-02
 -1.3314237e-01
 -9.3412837e-03
  2.0492727e-02
  1.5890772e-02
 -1.2780190e-02
  2.0050678e-01
 -7.7372231e-04
  9.2390152e-03
  2.7260926e-02
  1.3235996e-02
  1.8572900e-02
  4.0433720e-02
  3.6392756e-02
  4.8280816e-04
 -1.9577141e-03
  5.1308739e-01
 -1.5540584e-02
 -3.1486668e-02
 -6.7314222e-03
 -7.7412073e-03
 -1.6697256e-03
 -1.4940345e-01
 -1.0710191e-02
 -3.8007407e-03
 -8.6466456e-03
  5.1683530e-02
 -3.0752845e-02
 -2.2043448e-02
 -7.5512812e-02
 -1.6568538e-02
 -2.3106640e-02
  6.3940328e-01
  2.2724396e-01
 -2.2367936e-02
  3.7901592e-01
  3.7826836e-02
  1.7338477e-02
 -1.2902498e-02
  9.1916904e-02
 -4.2943008e-02
  1.7708186e-02
  3.3608221e-02
  1.2734479e+00
 -3.3384383e-02
 -1.7113149e+00
  5.7878988e-03
 -2.1901657e-01
  6.6038981e-02
 -2.1380972e-02
  1.4100735e-01
 -2.1492161e-02
 -5.3893905e-02
 -1.5261730e-02
  2.7977772e-02
  1.2844335e-02
 -1.4737567e-03
  6.7705158e-03
  2.0031536e-02
 -2.6724674e-02
  1.0297988e-03
 -3.2840356e-02
  1.2341613e-02
 -1.1551199e-02
  7.4529124e-04
  1.7163029e-02
 -8.1297785e-02
 -1.7507510e-02
  8.4398678e-03
 -9.5432252e-02
 -5.5199331e-03
 -9.2799813e-03
 -4.7656327e-02
 -2.7940203e-02
 -3.5459366e-01
  3.5765573e-01
  5.6513798e-01
  8.9835304e-01
 -3.5894446e-02
  2.2580247e-02
 -5.7571761e-02
  1.0629687e-01
 -1.0071679e-01
  7.5697994e-01
 -1.1034188e-01
 -7.9454952e-01
  4.3236103e-02
 -6.1751731e-02
 -1.8197134e-02
  8.3943002e-02
 -1.0690589e-02
  4.4121068e-02
 -1.5100969e-02
  4.1990694e-02
 -1.6780240e-02
  6.7114504e-03
 -2.1892726e-02
  4.7655448e-02
  1.4550823e-03
  3.8150632e-01
  2.1197200e-02
  1.6373051e-02
 -3.5568846e-03
 -2.1792402e-02
 -1.4370739e-02
 -5.9918790e+00
  1.8506465e-02
  3.1929472e-03
 -3.3234701e-02
  1.3142763e-02
  4.4806544e-03
  2.3769094e-02
  1.0041554e-02
 -1.8448361e+00
 -1.6926574e-02
  2.1786861e-02
  8.2806777e-03
 -5.1940564e-02
  1.5836965e-01
  3.2053259e-03
 -1.0916771e-02
 -6.2947631e-02
  2.6025036e-01
  1.2352178e-01
  7.5633979e-01
  1.9003603e-01
 -4.8860456e-03
 -5.3539865e-02
 -9.6212611e-02
 -2.2274569e-01
  6.1174221e-03
 -1.3640602e-01
  7.9861237e-03
  4.6153316e-01
 -3.7310638e-02
  3.4283954e-01
 -1.0623981e+00
  7.2894968e-02
 -3.7525699e+00
 -1.3742540e+00
  1.9291095e-01
 -3.2332692e-02
  3.4096245e-02
 -3.1562054e-03
 -5.7532605e-02
 -9.7089186e-02
  1.3298677e-02
  2.1613097e-01
  3.5135657e-02
 -5.6125186e-03
  6.4961491e-03
  6.3807420e-02
  3.3874819e-03
  1.0709791e+00
 -5.6290347e-03
 -4.0372320e-02
  1.2042823e-03
 -1.5916927e-01
  6.5804064e-02
  6.4106914e-04
  4.2613994e-02
 -2.5661428e+00
  5.5275053e-01
 -3.0589860e-02
  9.0955466e-02
  1.5417582e-01
  2.5211295e-01
 -2.8581359e+00
  5.4256511e-03
 -3.3484554e-01
 -1.5680479e-01
 -1.6806702e-01
 -6.6586643e-02
 -2.8488221e-02
  9.6076608e-01
  1.5647838e-01
  4.4516753e-02
 -1.8619259e-01
  2.8201976e-01
  3.2080084e-01
  3.0508302e-02
  1.0579851e+00
 -2.2203118e-02
 -1.1128924e-01
  3.9744028e-01
 -4.4730952e-01
  1.0934101e-01
 -2.8743371e-01
 -2.5610662e-01
  2.4071071e-01
 -2.7032495e-01
  3.3368234e-02
  2.8844682e-02
 -5.9780743e-02
  1.9369400e+00
  1.5020613e-01
  4.1277729e-02
 -2.5227678e-01
  1.4558415e-01
 -4.1701373e-02
  3.2599062e-02
 -5.4665077e-02
 -4.5500793e-02
 -4.3553582e-01
  2.0346861e-02
 -1.6163374e-01
 -8.7015644e-02
  2.0230610e-02
 -2.2634672e-01
  1.5615849e-01
 -4.1221350e-01
  1.3009728e-01
  1.8687959e-01
  2.0951138e+00
 -5.5679619e-02
  1.7905287e-01
  2.5466642e-01
 -1.5987042e-01
  5.5690624e-02
  5.0470874e-02
 -3.5569347e-02
 -1.4208181e-01
  8.4015074e+00
 -8.2034081e-01
 -1.4293236e+00
  1.0727098e+00
  1.3058325e+00
 -5.3229898e-02
 -2.2373090e+00
  4.0214143e+00
  6.7098043e-03
  2.0492368e+00
  5.3922697e-03
 -1.0386766e+00
 -1.8264146e+00
 -1.7035443e-01
  5.1184449e+00
 -2.0472655e+00
  1.7116685e+00
 -1.8802025e+00
  1.5559687e-01
  1.6903485e+00
 -3.0091750e-02
 -1.0582342e+00
 -2.6332924e-01
  4.7400582e-01
  1.4235954e-01
 -4.8393585e-02
  3.2090023e+00
 -5.8575648e-01
 -6.7973724e-03
  4.5262620e-01
  5.9977382e-01
 -1.3474880e+00
 -2.0204647e+00
 -1.2207969e+00
  2.7018815e-02
 -1.1493356e+00
  4.1157575e+00
 -7.7911979e-01
  1.5308187e+00
 -3.2737220e-03
 -2.0530167e-01
 -3.4885281e-01
 -1.5973668e+00
 -3.7127116e-01
  1.0140691e+00
  1.8700670e+00
 -2.5875549e+00
 -2.0969849e+00
  1.5522232e+00
  1.8471314e+00
  1.0683444e+00
  4.6256495e-01
  2.1632968e-01
  2.1274772e+00
  5.8659130e-01
  3.3353886e-01
  6.7045444e-01
 -1.0049111e+00
  2.7990523e-01
 -2.7611053e+00
  5.5867236e-02
  4.0604858e+00
  1.8835434e+00
 -1.8769610e+00
  8.5875303e-01
  1.9322678e+00
  4.4534305e-01
 -6.2795049e-01
  2.0324862e+00
  2.4145854e+00
  2.9688067e+00
 -8.8367349e-01
  7.5558108e-01
 -2.2359419e+00
 -1.3265824e+00
 -5.0764233e-01
 -4.1542706e+00
 -1.6118632e-01
 -2.5232995e+00
 -1.5781072e+00
  1.3890815e+00
  4.6788819e-02
 -3.2134659e+00
  2.8694555e-01
  2.3774800e+00
 -4.4145927e-02
 -7.1313575e-02
  1.7730071e-01
  7.7948266e-01
 -3.2124415e-01
 -1.8713337e-01
  3.3985388e+00
 -5.6742085e-03
  3.4932068e-01
 -1.7294030e+00
  5.9860116e-01
  7.9226375e-02
  7.7766246e-01
 -5.5467641e-01
 -2.2521468e-01
  5.4491878e-01
  5.9066290e-01
 -2.4695070e+00
  2.7465926e-02
  1.8066873e-01
  6.4863765e-01
  1.6089870e+00
 -8.1183100e-01
 -6.8336159e-02
 -2.8969865e+00
 -1.7580749e+00
  8.5055798e-02
 -1.2856138e-01
  7.0650220e-02
  2.6903346e+00
  1.2467978e+00
 -8.8732320e-01
  1.2085804e+00
  3.9030197e+00
  7.1053725e-01
  2.1154606e+00
 -1.0662029e+00
 -2.5558176e+00
  4.9312180e-01
 -4.1234297e-01
 -3.1970148e+00
 -3.5587726e+00
  4.2776537e-01
  3.9335103e+00
 -1.9016859e-01
 -1.2049398e+00
 -4.6270946e-01
 -2.0399978e+00
 -9.6001303e-01
  3.0870929e-01
 -3.9471948e+00
 -3.1938717e+00
 -1.9451678e-01
  4.0913053e+00
  4.6634799e-01
  2.3094630e+00
 -1.4261194e+00
  3.8470376e+00
  1.4421941e+00
  2.0203001e+00
 -9.2585218e-01
  1.3812469e+00
  1.0404412e+00
  6.5193212e-01
 -3.2979643e-01
  5.3839624e-01
 -1.3104517e+00
  7.9216623e-01
 -5.1925021e-01
 -1.5676724e+00
 -7.9760551e-01
 -2.2512767e-03
  1.3986992e+00
  1.2509140e+00
  2.5003049e+00
 -7.5713414e-01
  2.5418347e-01
  9.0394253e-03
 -2.0543547e+00
  1.3269695e-02
 -3.0775949e-01
 -3.5980446e+00
 -5.4984607e-02
  9.0646571e-01
  3.4912294e-01
  8.5111880e-01
 -1.1232159e-01
 -1.8492532e+00
  5.6219065e-01
  7.6294518e-01
  2.4865420e+00
 -5.9669651e-03
  1.2945102e+00
  4.5252079e-01
  2.2283876e+00
 -2.4610896e-01
  1.6267161e-01
  1.1843070e+00
  9.4839942e-01
 -3.7744348e+00
 -1.2629776e-02
 -8.1625426e-01
 -9.2016500e-01
 -3.8880841e-03
  2.0606047e-01
  7.8355449e-01
 -1.2060652e+00
  2.8597516e-01
 -7.7878517e-01
 -8.2538074e-01
 -1.6606977e+00
 -2.6784132e+00
 -1.7803361e+00
 -7.9533941e-01
 -8.9536500e-01
 -2.2461345e+00
 -8.9190817e-01
  7.0899469e-01
 -9.3092191e-01
 -9.3378824e-01
 -1.0498588e+00
  3.7192371e-01
  1.3885026e+00
 -5.6834567e-01
 -4.4779971e-01
  2.2472632e-01
  1.5955603e+00
  3.3622613e+00
  6.6930169e-01
  4.1473699e-01
 -2.5408895e+00
 -6.0869999e-02
  1.4440687e+00
 -2.8958907e+00
 -2.7236459e-01
  3.0773428e-01
 -5.4492801e-01
  4.5681095e+00
  4.0998650e+00
  9.8530483e-03
 -1.7500001e+00
  3.8458834e+00
  1.2502469e+00
  9.5829290e-01
 -4.7858360e-01
 -1.3848668e+00
 -1.6002510e+00
  7.3833637e-02
 -1.8236238e+00
 -1.8128172e+00
 -1.7322088e+00
 -1.4994868e+00
 -1.5456377e+00
  3.6675336e+00
 -8.5135579e-01
  4.0408704e-01
  1.4210101e+00
  1.2531585e+00
 -2.5822908e-01
 -1.7079404e-01
 -8.2064140e-01
  8.4268564e-01
  6.4801015e-02
 -1.5594290e-01
 -1.4028513e+00
  1.3260698e+00
 -6.0983378e-01
 -3.6670250e-01
 -1.2505845e+00
  9.7841990e-01
 -1.0069703e+00
 -8.3997720e-01
  8.3747827e-02
 -1.1295911e+00
 -8.8307291e-01
  9.1531312e-01
  3.0636254e-01
 -3.9635280e-01
 -3.3729000e+00
 -7.6967484e-01
 -1.0909841e+00
 -7.9303402e-03
 -1.8229529e-02
 -6.6651097e-03
 -5.9127986e-01
 -4.8220035e-01
  1.7228662e+00
 -1.2144867e+00
 -2.0806539e+00
 -1.8737718e+00
 -4.0720596e+00
  3.6455065e-01
 -7.5088304e-01
  6.9672721e-03
 -4.5032802e-01
 -2.4046352e-02
  4.3923440e+00
  4.6983562e+00
  2.9613280e-01
 -5.1249042e+00
 -9.5741153e-01
 -2.7953804e+00
  4.1066327e+00
 -1.2009617e-02
 -5.7321725e+00
  9.9899763e-01
 -2.2820869e-01
 -1.9724917e-01
 -2.3191936e+00
 -2.7338631e+00
 -3.6541039e-01
 -2.5325419e-02
  2.4275279e-01
  4.2349598e-01
 -1.4919032e+00
  2.9262209e+00
  2.2537267e+00
 -6.7349154e-01
  9.1822374e-01
  8.5062873e-01
  1.9025756e+00
 -6.1137171e+00
 -2.9005069e-01
 -4.7373567e-02
  7.9966623e-01
 -6.3903604e+00
  1.0859719e-01
  3.0968249e-01
 -7.2860217e-01
 -3.2607174e-01
 -4.5174956e-01
 -2.9758430e+00
 -1.9332911e-01
  4.0930954e-01
 -3.2130685e-01
 -6.5151975e-02
 -9.0334064e-01
 -1.2569222e+00
 -3.2805762e+00
  1.7298327e-01
  1.0841604e+00
 -1.5275152e-01
 -1.1522186e+00
 -2.0310512e+00
 -8.9802366e-01
  1.6501403e+00
 -2.0881605e+00
  6.8296869e-03
  1.8898527e-01
 -2.7312031e+00
  7.4803042e-01
 -1.6319466e+00
  1.7022684e+00
 -1.0154789e-01
  3.5637186e+00
 -7.3359978e-01
  1.7471446e+00
  1.2002347e-01
  4.2533079e-01
 -5.7404651e-03
  3.4129462e+00
 -3.0744491e+00
  2.5942931e+00
 -1.6856303e+00
 -1.8958160e+00
 -2.2533028e+00
 -7.1915150e-01
 -3.1093526e+00
 -3.4957869e+00
  1.9226505e+00
 -1.0851293e+00
 -7.0888376e-01
 -1.7544065e+00
 -2.6073094e-02
  2.3581119e+00
  3.8838372e+00
 -1.8005690e-01
 -6.3362136e-02
 -1.0001489e+00
  2.6473236e-01
  1.4220066e-01
 -1.0723165e+00
 -5.0423747e-01
  1.7309191e+00
  1.2607520e+00
  7.3353243e-01
 -3.6428517e-01
  6.0441787e-03
  4.3054748e+00
 -1.6989712e-02
 -2.5058466e-01
  2.3907883e+00
 -2.5074029e+00
  2.5213284e+00
  1.1962038e+00
 -4.0538508e-01
  1.4873266e+00
 -1.1909083e+00
  1.0110388e+00
  9.3011254e-01
 -1.8726485e+00
  2.0568190e+00
 -3.3379695e+00
  8.5672826e-02
 -1.8026509e+00
 -3.5588963e+00
 -3.8388491e-01
  2.2538050e-01
 -5.1017952e+00
  1.1017253e+00
 -6.6808093e-01
  2.8809407e+00
 -9.4461924e-01
 -2.4111788e+00
  2.0879462e+00
  2.6864033e-02
  5.6429887e-01
 -5.7788783e-01
 -8.3872086e-01
  1.7610773e+00
 -4.6959981e-01
 -3.3396733e-01
  1.2383680e+00
  1.1296749e+00
  3.2650579e-02
 -2.3295648e+00
 -3.1676646e-02
 -2.8038004e-01
 -1.0908287e+00
 -1.2323482e+00
 -3.2530463e-01
 -7.1886259e-01
  2.7073258e-01
  1.8940681e-01
  2.6357517e+00
 -5.8412600e-01
 -2.5950053e+00
  2.6433303e+00
 -1.8923614e+00
  6.5046571e-02
  1.4124987e+00
 -4.3647510e-01
 -2.5363865e+00
 -1.1303842e+00
 -1.2268049e+00
  3.1200721e+00
 -1.6186013e+00
 -9.8532058e-02
 -5.4192777e+00
 -4.3646350e+00
 -4.8678035e-01
  8.8924542e-03
  1.1944745e+00
 -7.4151188e-01
 -8.1778938e-01
  3.9102888e+00
  1.5051273e+00
 -3.2961154e-01
  1.1219577e+00
  1.0237182e+00
  1.2194138e+00
  6.1824048e-01
 -3.2721603e+00
  4.0631196e-01
  7.8297710e-01
  2.9482222e-01
 -2.5141642e+00
  5.2979908e+00
  1.6225585e-01
 -9.8375940e-01
 -6.0095036e-01
  3.1391327e+00
 -2.1773469e+00
  2.4269402e+00
  8.6153239e-01
  2.7773218e+00
 -2.3842711e+00
  4.3364415e-01
  2.3672830e-02
  2.3972176e-01
 -1.1477714e+00
 -5.1819223e-01
 -4.4350576e-01
 -2.7638939e-01
  6.6866392e-01
  7.9170620e-01
 -6.6372091e-01
 -4.5259233e+00
  2.0643239e-01
  6.0689893e+00
 -9.9057311e-01
 -1.1123163e-02
  3.1478467e+00
 -2.2825311e-01
  3.7936181e-01
  1.0407597e+00
 -9.1090667e-01
 -2.4033989e-01
  1.6269041e+00
  6.1932504e-01
  2.6237726e+00
 -6.6735163e-02
  2.1683316e+00
 -4.9049556e-02
  1.5283931e-02
 -5.4753361e+00
 -6.5339798e-01
  3.1056309e-01
 -3.8463759e-01
  1.7561401e+00
  2.5427868e+00
 -4.7041008e-01
 -4.1309384e-01
 -3.7670726e-01
  3.0775237e+00
  2.4816709e+00
 -4.7669855e-01
  1.1163121e+00
 -9.4781840e-01
  8.5999143e-01
  1.3804346e+00
 -4.2507854e+00
 -1.3908414e+00
 -1.7653302e+00
  1.1162591e+00
  2.0797739e+00
  6.4812928e-01
  3.9071271e-01
 -1.2169050e+00
  4.6244920e-03
  9.2375916e-01
 -1.7153271e-01
 -2.1247518e+00
  2.9862449e+00
 -1.5741431e+00
 -2.3667786e+00
 -7.9827040e-01
  4.0770227e-01
 -9.6719527e-01
  5.8895093e-01
 -8.3174843e-01
  3.4031496e+00
  1.7733715e+00
  4.3951874e-03
  3.0584338e-01
 -5.3674978e-01
  5.0899875e-01
  1.6229873e+00
  1.7100585e-01
  1.2151659e+00
 -7.5709075e-01
 -1.9701283e+00
 -3.3970764e+00
  1.1044302e+00
  1.0299044e+00
  6.1202669e-01
  1.6016549e+00
  1.4571766e+00
 -2.1800706e+00
 -1.7727095e+00
 -1.0355056e-01
  8.4160215e-01
 -2.0982993e+00
 -3.6117768e+00
 -2.3602159e+00
  3.2376947e+00
 -1.8150367e+00
  1.8449006e+00
 -2.2462564e+00
 -5.9140640e-01
 -2.7099218e+00
 -2.9075661e-01
  1.3257481e+00
  2.5670366e+00
 -1.3156732e+00
 -8.9529064e-03
  1.0162330e+00
 -1.4314009e+00
  9.2968613e-01
 -1.1127108e+00
 -9.2781770e-01
 -1.6368225e-01
 -1.2694993e+00
  7.4281985e-01
 -1.3649450e-01
  2.3192027e+00
  3.0227395e-02
  4.5891649e-01
  2.5562057e-01
  3.4517050e+00
  5.6039488e-01
  1.5436683e+00
 -1.1195185e+00
  1.3381571e+00
 -8.6466581e-01
  4.4584544e-03
  3.4791049e-01
  2.0295132e-02
 -1.6757579e+00
 -3.6508970e+00
 -1.8417670e-01
  7.9876328e-01
 -6.6692984e-01
 -1.2278808e+00
  3.7145064e+00
 -2.5489943e+00
  7.4978846e-01
 -4.3811582e-02
  2.5914118e+00
  2.2483454e+00
  1.0724907e+00
 -5.4206485e-01
  7.9975098e-01
  3.4505185e-01
  5.2488911e-01
  1.4948145e-01
 -2.3381608e+00
 -4.6748682e-03
  9.5531112e-01
  4.6237916e-02
 -2.2148752e+00
 -2.4673829e+00
  9.0486079e-01
 -6.7637426e-01
  3.4954953e-01
 -2.6559458e+00
 -1.6525232e+00
  4.6379802e-01
  1.9236031e+00
 -1.7687021e+00
 -2.8715241e+00
 -2.3920555e+00
  1.2925227e+00
 -1.0721159e+00
 -1.4943236e+00
  2.9902625e-01
 -1.1622438e-02
 -4.2619950e-01
 -9.4142699e-01
  4.9046123e-01
  1.0595572e+00
 -2.1750369e+00
 -9.0377462e-01
 -3.1506020e-01
  7.4483943e-01
 -8.4757459e-01
  3.9480612e-01
  3.3161327e-02
 -1.1175874e+00
  1.3376709e+00
 -8.9355522e-01
  3.1734541e-01
  1.5551728e+00
 -8.6766696e-01
 -3.6472430e+00
 -3.3444452e-01
 -3.0354366e+00
 -1.2624233e+00
  2.1049967e+00
 -4.3319875e-01
 -4.6304157e-01
  4.6810359e-01
  1.7537137e+00
 -6.7557059e-02
 -2.1644716e+00
  2.4838960e-01
  2.6652684e+00
 -1.0626165e+00
 -4.4977647e-01
  2.8909962e+00
 -2.7318981e+00
 -2.3855515e+00
  7.5244534e-01
  3.2180846e-01
 -1.1252130e-01
  1.4114411e+00
  1.0474410e+00
  1.3484985e+00
 -3.5185069e-01
  1.6074255e+00
 -7.1808714e-01
  1.2842534e+00
  1.4843193e-01
 -6.6974767e-02
 -2.3512106e+00
  9.3272135e-02
 -1.0045359e+00
 -5.3836972e-01
 -1.0403510e+00
 -4.4551966e-01
  2.8962824e-01
 -1.7721812e+00
 -1.9441998e+00
 -1.0198585e+00
 -3.2409877e-01
  2.5114527e-02
  4.0110700e-02
 -1.3836368e+00
 -3.0094939e-03
  1.7212091e-02
 -2.2562827e-01
  1.7494657e+00
  9.8486739e-01
  1.4309227e-02
  6.0588390e-01
  1.1743550e+00
  7.8543401e-01
  2.2473155e-02
  3.7808752e+00
  3.5776792e+00
  8.8989399e-02
 -6.2885545e-03
  2.1160998e+00
  1.0176740e+00
 -6.9251829e-01
  7.4262552e-02
 -1.8834524e+00
  3.7512896e+00
 -1.5642873e+00
 -3.3196867e-02
 -2.2932281e+00
  8.0251729e-01
 -3.2715983e+00
  4.1378355e-03
 -6.1291748e-01
 -2.4232779e+00
  7.9684597e-01
  2.3293231e-02
  3.2175368e-01
 -3.4409803e-01
  2.1091168e+00
 -4.5532446e-02
  5.6569237e-01
  1.9233302e+00
  1.0957935e-01
 -1.3237567e-02
 -2.5641119e-01
  1.3665000e+00
 -1.6735772e+00
  2.0833563e-02
 -8.4055084e-01
  6.5928519e-02
  2.5709102e-01
 -1.7822020e-02
 -1.6060506e-01
  4.6796143e-01
 -9.1833575e-03
 -1.8752644e-02
 -7.9534128e-03
 -6.5997577e-01
  3.2275375e-02
  2.2961311e+00
  8.9043403e-01
  2.3160999e+00
  1.5709569e+00
 -1.1828616e-02
  8.1304693e-01
 -2.8014362e+00
  2.5228565e+00
  4.6440125e-03
  1.1892974e+00
  2.8363364e-02
  1.1081445e+00
 -2.2101484e-04
  3.1968818e+00
 -1.7781583e+00
  8.8458878e-01
  2.7716819e-02
  5.3800720e-01
 -2.4083169e+00
 -8.8665384e-01
 -2.7491577e-02
 -5.6247181e-01
  3.5700157e-02
 -3.4944031e-02
 -2.2000881e-02
 -1.9411254e+00
  1.3846892e+00
 -1.0675429e-01
 -6.0358089e-03
 -1.3234605e+00
 -8.5676891e-01
 -1.2166620e+00
  9.9401046e-03
  4.1290310e-01
 -6.8940151e-01
 -1.8454682e+00
 -4.0940437e-02
  1.0941172e+00
 -1.0559651e-01
 -2.1255812e-01
 -1.4535554e-02
 -4.6324518e-01
 -1.0071013e-02
  6.3706052e-01
  2.8255586e-02
 -1.6225514e+00
 -1.2168866e+00
 -3.0951104e+00
 -1.7060313e-02
  1.0991653e-02
  5.0162560e-01
 -4.0994212e-02
  3.4202747e-02
  4.1584662e-01
  8.7736678e-01
 -3.1676745e-01
 -1.4905937e-02
  3.4941700e+00
 -1.7339977e+00
  3.9700148e+00
 -5.5750734e-03
 -1.1014351e-01
 -1.5558385e+00
  8.8576275e-01
  1.7572746e-02
 -4.9538896e-03
  6.9479406e-01
  1.8644567e-01
 -5.7892162e-02
 -1.2973745e+00
 -3.7967095e+00
  1.8074882e+00
  1.4950800e-02
  1.7654117e+00
 -1.8050725e+00
 -4.6488518e-01
  6.0212277e-02
 -1.0456764e+00
  1.1680763e+00
 -6.2295604e-02
  3.3499512e-01
 -2.4495170e+00
  2.0626373e+00
  1.0695913e+00
 -4.8695323e-03
 -8.1690669e-01
 -4.8979574e-01
 -5.8724904e-01
  5.7549495e-03
  1.1307396e+00
 -8.7089562e-01
 -1.5284613e+00
 -2.5945395e-02
  7.3486185e-03
 -7.2251499e-01
 -1.3515119e-01
  5.2510947e-03
 -7.4368227e-01
  2.1975045e+00
 -2.3247953e-01
 -1.5049459e-02
 -1.4611809e-02
 -2.3310807e+00
  1.6932069e-01
  1.9232284e-02
 -7.3735759e-02
  2.4462998e+00
 -2.0287409e+00
 -8.9359824e-03
 -6.6012099e-02
 -2.9323535e-02
 -2.7644199e-01
 -1.1250536e-02
 -1.3394745e-01
 -7.5323540e-01
 -1.6527675e+00
 -2.0142391e-02
  2.0604188e+00
  4.1735423e-01
  2.0281179e+00
 -1.2640812e-02
  7.8240627e-01
  1.0381991e+00
 -2.2695678e-01
 -3.9841924e-02
  2.7194914e-01
 -3.1894323e-01
  2.5581067e+00
  1.9021284e-02
  7.1118444e-02
 -2.4486588e-01
  1.6796831e+00
  3.5757147e-02
  6.0102785e-01
 -7.0684892e-01
 -1.7714585e+00
  3.0875143e-02
 -2.0839107e+00
 -2.8733116e-01
 -1.4873359e+00
  1.8133242e-03
 -3.0152323e+00
 -2.3173490e-01
  1.4425256e+00
 -1.3114764e-02
 -1.4616656e+00
 -1.8880472e-01
  1.1769131e+00
 -5.6980379e-02
  2.2593994e+00
 -3.3850651e+00
  4.9521440e-01
  1.0921327e-02
  2.4795597e-02
  8.6758379e-03
 -3.6647911e+00
  1.6160818e-02
  4.1199155e+00
 -7.6134491e-01
  1.4605206e+00
  4.4563137e-02
 -2.3834648e+00
 -5.5923510e-01
 -8.6145818e-01
  5.6196246e-02
  9.8244883e-02
 -1.0551068e+00
  2.6371360e+00
 -2.7946103e-04
 -1.5956775e+00
  1.5877565e+00
  1.8303418e+00
 -5.7760058e-03
  3.6940712e-01
  2.9422498e+00
 -7.1197182e-01
 -1.9425660e-02
  5.7631832e-02
 -1.3477798e-01
 -1.2517523e+00
 -8.0184061e-03
  1.8308417e+00
  4.3538358e-02
  8.6066008e-01
 -1.2014876e-02
 -1.2975806e+00
 -1.3914319e+00
  2.5524395e+00
 -3.3320386e-02
 -4.3443078e-01
 -1.0026230e-01
  1.8820404e+00
  1.1262489e-02
  1.4768246e-01
  3.1552356e-01
  5.3216523e-01
 -1.3000857e-02
 -3.1204787e-01
  8.8171721e-01
 -3.7895840e-01
  2.0012964e-02
 -6.8756580e-01
  1.7023286e-01
 -3.7722239e-01
 -1.2025675e-02
 -1.8275045e-02
  1.3049604e-01
 -2.1433001e-02
 -1.9359117e-02
 -2.3399615e+00
 -1.0096114e+00
  1.6132640e+00
  1.0052966e-02
 -1.0529156e+00
 -2.4435227e+00
 -3.2923773e-01
 -1.9162977e-03
 -2.7894615e-03
 -1.0777432e+00
  9.5974159e-01
 -1.7439842e-02
  5.2557456e-01
 -1.9801972e+00
  9.9976711e-02
  4.6947412e-02
 -9.2076071e-02
  2.9364755e+00
  4.8976880e-01
  2.9077582e-02
  2.5939872e+00
 -1.7282369e+00
  2.1874244e+00
 -2.0091861e-02
  5.6146288e-01
 -2.3993151e-01
  7.6353329e-01
  9.0006538e-02
 -2.3370881e-01
  2.7728420e-01
  7.0313638e-01
  1.5356382e-02
 -5.2195527e-02
  2.7005911e+00
 -7.1871680e-01
  7.3827155e-02
  1.1579398e-01
  2.0948005e-01
 -8.2738286e-01
  1.2695415e-02
  1.0110793e-01
  2.1417004e-01
 -1.0671093e+00
 -2.5564853e-02
 -5.6225961e-01
  9.6055591e-01
 -1.8969555e+00
  7.9248184e-03
 -6.4660028e-02
  7.0680596e-02
 -2.8952610e+00
 -6.3345462e-02
  5.7688538e-02
 -2.4884641e-01
 -4.6492556e-01
  4.3578949e-02
 -6.8494439e-01
  8.2881099e-01
 -3.1587217e+00
 -6.7593125e-03
 -2.7946195e-01
 -1.7991644e+00
  9.9656612e-01
  1.0224730e-03
 -5.4152861e-02
  8.0175579e-01
  1.9404299e+00
 -8.7608257e-04
 -3.2881625e-02
  1.4940636e-02
 -9.1670752e-01
  1.1752310e-02
 -8.9161026e-01
 -1.0437592e+00
 -4.0494815e-01
 -3.4505337e-02
 -4.0250826e+00
 -8.6140585e-01
  6.2770136e-02
  1.3566652e-02
 -1.2259154e+00
 -1.7073689e+00
 -8.6497122e-01
 -8.2083456e-03
  1.8660470e+00
 -1.8812025e+00
  5.6927764e-01
 -3.5282411e-03
 -5.7702291e-01
 -4.5765454e-01
  1.7566510e+00
  3.0004797e-03
 -6.1368465e-01
  6.3214827e-01
  6.5016150e-01
 -4.4101384e-02
  1.3898033e-01
  1.3898033e-01
  1.3898033e-01
  1.3898033e-01
  1.3898033e-01
  1.3898033e-01
  1.3898033e-01
  1.3898033e-01
  1.3898033e-01
  1.3898033e-01
  1.3898033e-01
  1.3898033e-01
  1.3898033e-01
  5.5065662e-01
  5.5065662e-01
  5.5065662e-01
  5.5065662e-01
  5.5065662e-01
  5.5065662e-01
  5.5065662e-01
  4.2417270e-01
  4.2417270e-01
  4.2417270e-01
  4.2417270e-01
  4.2417270e-01
  4.2417270e-01
  4.2417270e-01
  8.6651772e-02
  8.6651772e-02
  8.6651772e-02
  8.6651772e-02
  8.6651772e-02
  8.6651772e-02
  8.6651772e-02
  4.3166693e-02
  4.3166693e-02
  4.3166693e-02
  4.3166693e-02
  4.3166693e-02
  4.3166693e-02
  4.3166693e-02
  1.0912188e+00
  1.0912188e+00
  1.0912188e+00
  1.0912188e+00
  1.0912188e+00
  1.0912188e+00
  1.0912188e+00
